-0.3331085443496704
-0.2773956060409546
0.2964596748352051
-0.11516919732093811
0.3039865791797638
-0.068644218146801
0.5244435667991638
0.059800803661346436
-0.4782792329788208
-0.3136099576950073
-0.2712453305721283
0.11493708938360214
-0.3779054582118988
0.1612076759338379
0.3670624792575836
-0.10912580043077469
0.3792403042316437
-0.2806890904903412
-0.5127143263816833
-0.43720683455467224
0.8826504349708557
0.4690748453140259
-0.2844572961330414
-0.2419918030500412
-0.06696752458810806
-0.08243846893310547
0.6988263130187988
0.3388303816318512
-0.35535839200019836
-0.10385074466466904
-0.1147078350186348
-0.04381281137466431
-0.5487855672836304
0.1953725665807724
0.49451449513435364
-0.650892436504364
0.22191911935806274
0.4930996894836426
0.35066962242126465
0.34747374057769775
-0.0875159278512001
-0.24519477784633636
0.06638102233409882
0.09246956557035446
0.6601318717002869
0.3533867299556732
-0.3708076775074005
-0.285959929227829
-0.5682221055030823
0.10589195042848587
-0.5966443419456482
-0.08274804800748825
0.030618004500865936
-0.5705592632293701
0.1637994796037674
0.38115790486335754
-0.2701626121997833
-0.13839267194271088
-0.5593996047973633
-0.3642306327819824
0.09572891145944595
0.2838846743106842
0.24046637117862701
0.08115949481725693
0.33327868580818176
0.08666995167732239
-0.30250054597854614
0.06856662034988403
-0.28137022256851196
0.03943836688995361
0.18096226453781128
0.3830619156360626
-0.08084465563297272
-0.12013774365186691
0.39762988686561584
0.568815290927887
-0.6222951412200928
-0.42418208718299866
-0.18235909938812256
-0.2793593108654022
0.0813564732670784
0.4231806993484497
-0.053388115018606186
-0.220986470580101
0.21356862783432007
0.2587278485298157
-0.04852350056171417
-0.14533597230911255
-0.22785280644893646
0.08147364854812622
0.25707152485847473
-0.17086993157863617
0.09329459816217422
0.19414491951465607
-0.42426797747612
-0.006769154686480761
-0.1577410101890564
0.30862709879875183
0.12281801551580429
-0.11574781686067581
0.2719784677028656
-0.5306883454322815
0.042843643575906754
0.23328274488449097
0.31794503331184387
0.2309095859527588
-0.04604744538664818
0.17603175342082977
0.08613470941781998
-0.1637587696313858
0.2561216950416565
-0.11323177069425583
-0.2696676254272461
0.3886449635028839
0.012890401296317577
-0.24217772483825684
0.10790758579969406
-0.37060102820396423
0.12690241634845734
-0.1622972935438156
-0.6351174712181091
-0.32855719327926636
0.11920323967933655
-0.08584553003311157
-0.3660183846950531
-0.021106252446770668
-0.4206644296646118
-0.052469994872808456
-0.3389448821544647
-0.09431058913469315
0.24264748394489288
0.5707169771194458
0.002848199801519513
-0.4128749668598175
-0.1342618465423584
-0.1520891934633255
0.2708836495876312
-0.6000451445579529
-0.4806539714336395
-0.3494841754436493
-0.09200036525726318
-0.006150503177195787
-0.045430079102516174
0.21918469667434692
0.024073971435427666
0.5575679540634155
-0.022667916491627693
-0.4184988737106323
0.10606681555509567
0.1920957714319229
0.6868193745613098
-0.4705619812011719
-0.529376208782196
